<?xml version="1.0"?>
<opencv_storage>
<stage5>
  <maxWeakCount>5</maxWeakCount>
  <stageThreshold>-7.0399057865142822e-01</stageThreshold>
  <weakClassifiers>
    <_>
      <internalNodes>
        0 -1 70862 -2.3627081885933876e-02</internalNodes>
      <leafValues>
        8.7878787517547607e-01 -4.3157893419265747e-01</leafValues></_>
    <_>
      <internalNodes>
        0 -1 162125 -1.2142391642555594e-04</internalNodes>
      <leafValues>
        -7.7037960290908813e-01 4.5697346329689026e-01</leafValues></_>
    <_>
      <internalNodes>
        0 -1 135675 -1.6475818119943142e-03</internalNodes>
      <leafValues>
        7.1475750207901001e-01 -5.1841145753860474e-01</leafValues></_>
    <_>
      <internalNodes>
        0 -1 142913 1.1667222715914249e-03</internalNodes>
      <leafValues>
        -6.4937365055084229e-01 6.5069913864135742e-01</leafValues></_>
    <_>
      <internalNodes>
        0 -1 162131 -1.3702735304832458e-03</internalNodes>
      <leafValues>
        -1. 4.3840005993843079e-01</leafValues></_></weakClassifiers></stage5>
</opencv_storage>
