<?xml version="1.0"?>
<opencv_storage>
<stage7>
  <maxWeakCount>5</maxWeakCount>
  <stageThreshold>-4.7943258285522461e-01</stageThreshold>
  <weakClassifiers>
    <_>
      <internalNodes>
        0 -1 90249 -9.2766787856817245e-03</internalNodes>
      <leafValues>
        4.9206349253654480e-01 -6.6153848171234131e-01</leafValues></_>
    <_>
      <internalNodes>
        0 -1 14519 -1.2223380617797375e-03</internalNodes>
      <leafValues>
        -6.5701329708099365e-01 4.7003892064094543e-01</leafValues></_>
    <_>
      <internalNodes>
        0 -1 137622 2.0025597768835723e-04</internalNodes>
      <leafValues>
        -4.2346894741058350e-01 8.5521745681762695e-01</leafValues></_>
    <_>
      <internalNodes>
        0 -1 132589 3.0863354913890362e-04</internalNodes>
      <leafValues>
        -4.1534161567687988e-01 7.9507589340209961e-01</leafValues></_>
    <_>
      <internalNodes>
        0 -1 57459 -1.5951450041029602e-04</internalNodes>
      <leafValues>
        5.5087751150131226e-01 -5.8903068304061890e-01</leafValues></_></weakClassifiers></stage7>
</opencv_storage>
